4.636891190455312284e-01,-1.186928769480741774e-01,-8.493947085753346116e-01,-6.712279265055374200e-01,-2.773745153370905658e-01,4.763527077751934513e-01,-9.495373188222133720e-03,4.628016527627698551e-02,-7.962849523125363760e-01,2.088517663177045236e-01,1.407884294081971355e-01,-7.912704803638632711e-01,6.830560270069829798e-02,3.543013286266425421e-01,-1.765296045491464572e-01,5.022214233301047770e-02,5.725459866954241139e-01,-1.305657894269245389e-01,-8.508253145506052828e-01,-3.850224480661710302e-01,8.244040839743527194e-01,7.381237002605969266e-01,-2.626813711605131552e-01,-8.258311230744350695e-01,-5.232186128874647402e-01,5.851290710748668911e-01,2.988402960837841515e-01,8.406418856423041319e-01,6.875512881558150102e-01,-1.196754253966796355e-01,-6.742862960010449491e-01,-7.957407013411192942e-01,5.373072323556926655e-01,-1.611796209189302331e-01,9.828635892850938749e-01,-1.578047328433021534e-01,2.592576889863244527e-01,-5.481111786141023012e-01,-5.177074001156654059e-01,2.636713356181458190e-01,7.746209722249574048e-01,2.231815442392390825e-01,3.888411029166272681e-01,9.138296537105961015e-01,4.572903557253781837e-01,2.653296921199639891e-01,-7.169699312115754841e-01,7.751820377466422940e-02,9.473993160578282335e-01,-7.926707989757413308e-01,9.302611814774393029e-01,6.013786985125011419e-01,9.557535503109992892e-01,8.094789700981688263e-01,-9.517653533809848909e-01,4.365638839267820259e-01,-9.505053585690268481e-01,-2.248586369647040950e-01,8.002161344998939274e-01,9.316737841848814483e-01,1.254119504287909415e-01,2.708999368077906200e-01,-6.549665554920234278e-01,1.174233322745752289e-01,1.148006275495484172e-04,6.746831424661106080e-01,6.853331244567227865e-01,-3.166659140523345184e-01,-9.007524558591065711e-01,-2.690406948682189658e-01,7.699300774575347228e-01,3.947519403860093035e-01,7.235874354563875954e-01,-5.468889468993651803e-01,6.561504721454753941e-01,6.551896261349127171e-01,1.495971043436742087e-01,-9.317094254163226230e-01,-1.600782038077410985e-01,-5.964026367865420397e-01,-5.112838694895975866e-01,-8.438208657874854968e-01,7.028821531632905018e-01,-8.540896690345054498e-01,3.587640738412201102e-02,-3.997871623872268909e-01,6.898396494813295587e-02,7.736516378824030982e-01,-5.386687056781251925e-01,7.875470049953056106e-01,-6.765814586402087993e-01,-5.219673853674857700e-01,5.157935257568246890e-01,-6.088128518688344926e-01,-1.813141502228913793e-01,1.661425781163362522e-02,2.368062256957687017e-02,-3.412370957660135762e-01,8.753860804460037448e-01,-8.388767302545959703e-01,-2.069848371287421329e-01,4.857318072300692569e-01,7.029701886758735752e-01,1.409667675973634293e-01,-9.582521049270794622e-01,7.452850531706362025e-01,6.684676065074217632e-01,-3.017477893626930793e-02,5.721253981185518978e-01,7.666251911595881596e-01,6.792618416583724450e-01,3.397070858631825452e-01,-8.100674642577041507e-01,-7.428713361455117070e-01,-8.107127653628679598e-01,-8.984255636176315951e-01,-3.627024217548592278e-01,4.867259154643073238e-01,3.995259035405664128e-02,-7.257401345645260182e-01,-8.183337228480224157e-01,-4.204207403132710352e-01,-9.620045263771634936e-01,7.147301866654875990e-01,2.704442360915887411e-01,-1.316498525703984346e-01,-2.083092869059409991e-01,5.200477558462031358e-02,-9.942754629502923436e-01,-2.340892077105445265e-02,5.090315273534655738e-01,-4.533414803606577448e-01,4.060187513331323106e-01,-7.955838296727696379e-02,-4.316041792221639861e-01,2.031887367288269797e-01,6.847206671917092091e-01,-6.893933507726496268e-01,-4.370846162340293883e-01,2.813241642245749574e-01,-7.199641658074837913e-01,4.544922402605651168e-01,8.761117616774897199e-01,-2.743452190464099605e-01,6.200817980225314247e-02,-6.898441662571402899e-01,-5.433358234287622990e-01,-9.738325989197377242e-01,-5.794641388442126617e-01,-6.458407069738807404e-01,4.690409151587294767e-01,-7.574016442534171611e-01,-8.322665335285536203e-01,-1.999764560456381568e-01,-4.898147456036360814e-01,1.691536844037579423e-01,4.403085963507651357e-01,7.119273081811305914e-01,1.290897347943277818e-01,-5.265194895451470458e-01,3.232837913066367586e-01,5.575231918635147332e-01,7.171366583570741859e-01,8.404651146434404252e-01,-1.246051265913499378e-01,-7.800713293080909772e-01,6.888361245686456247e-01,-4.276582157498849401e-01,9.014628432768567734e-02,-5.217591859823955680e-01,9.244929808348785194e-01,-6.507966295934886070e-02,-9.361138405727769118e-01,-6.214079473766040973e-01,7.643950649216162407e-01,8.220334457526334848e-01,-1.132361111344230231e+00,-3.146549940952154262e-02,-2.480821724195273192e-01,-3.076747200200504739e-01,2.299409196123686216e-01,2.019500927710857208e-01,1.148494599927547100e+00,-5.028774810193490374e-01,-7.930276484391740599e-01,1.121205134749747312e-01,-5.682397321215785224e-01,6.507398160153804456e-01,4.511690600325145295e-02,-2.100280308671787222e-01,-8.308786645920333003e-01,-3.313041830865210979e-01,7.637145769783465488e-01,-4.116605575202429423e-01,-5.078041580549904621e-01,-8.849630672496666683e-01,-9.103145130434886489e-02,-7.439139429868596443e-01,3.492229907958930846e-01,2.698765878684954503e-02,-5.785625156645760603e-01,1.570024507406542758e-01,2.640817933504597259e-01,3.874395739547802919e-01,7.812255630203152404e-04,-2.288838420054576384e-01,-1.164702390557190853e-02,-7.505809632661252229e-01,-7.479668135839154797e-01,-5.072042150816279404e-01,3.441714537864496437e-01,-6.806209391165334299e-01,-1.080899283636602703e+00,-4.333137135114071836e-01,-2.127682597470980375e-01,-1.075320176542490236e+00,-9.573670824797749779e-01,-1.116094567306116669e+00,-6.812755717880453199e-02,6.749823385529282738e-02,-3.224246742320710513e-01,3.812619879275753187e-01,-3.578853870083713584e-01,3.391690595215248183e-01,-1.309314673834116594e-01,-1.154444679078943936e-01,3.143287913529966282e-01,4.970322080914346130e-01,-3.070641325994540871e-01,8.548070441435844380e-01,-9.620593256547779193e-01,1.039061003982469228e-01,-1.187924059135423649e+00,3.782456048791237313e-01,-5.386100806587150458e-02,6.419434019910915667e-01,-2.642046361427152767e-01,1.787521840118200811e-01,-4.322549937543561649e-01,8.343184698641235020e-01,6.398447707159024000e-01,1.214575347286448587e-01,4.292114488411930551e-01,-1.114654773079112093e+00,-7.193348622179386309e-01,-1.138522932073053662e+00,-6.474400409826968072e-01,-8.945526998978237110e-01,7.131670415153574805e-01,-8.843753011904295636e-02,9.665431829763061755e-02,-7.379447920229799118e-01,5.144330341489440350e-01,3.346761875934923802e-01,-5.612380967022446709e-01,3.725984450390930625e-01,8.427039839313758829e-02,-4.808942160991158121e-01,3.335118111153795861e-01,4.484751771312314728e-01,2.341948347470192426e-01,-8.428741064116153370e-02,-4.607462016877202915e-01,-3.300604935533038575e-02,-3.632168181466884915e-01,-3.428322114671122356e-01,6.934436094651502680e-01,3.612069657199049044e-01,1.048385311671712561e+00,-7.226759355436195298e-01,-1.859271750849779137e-01,4.309434824200490954e-01,1.420938343154748082e-02,1.854827344198445027e-01,2.781520111709310794e-01,-4.834706307940653813e-01,-9.534974345572116983e-01,-1.012831794631151583e+00,-2.712225053129567812e-02,9.793506857394888021e-01,5.847023372924138318e-01,9.926971976709954015e-01,-6.597809261905467348e-01,4.236608915595328484e-01,6.228388026508605568e-01,7.597759519147221363e-01,4.428186546324288653e-01,-7.745258907696999096e-01,-8.108023185614851025e-01,-1.241890511665133118e-01,-1.082917266888870356e-01,1.009360578004426356e+00,-6.129819904862399138e-01,-3.009509660872770054e-01,1.061563783445587328e+00,7.322489494680084476e-01,1.009786741556937484e+00,-7.093998865207276072e-01,-4.352843812218803454e-01,-1.037950710242478092e+00,-7.875378963963353129e-01,-7.684844646953835623e-01,-3.686899978706704717e-01,-4.221113086298666217e-01,-6.499659583653236705e-01,-3.909609045966608298e-01,1.319029856455843086e-01,7.190114474871143191e-01,-3.867055483984758180e-01,3.207847885608617333e-01,-5.404530406574948875e-01,-1.113993181029642593e-01,-8.068550839580758138e-01,-4.746042555235192029e-01,-8.050562576112779700e-01,6.985205941816967634e-01,-1.001955805990394133e+00,1.325043181392540625e-01,-6.332013833145424542e-01,3.607263736812618693e-01,5.301803054473982479e-01,-2.297945048768984810e-01,1.032195540530685740e+00,9.814821192448128784e-01,-5.729470574311111841e-01,-6.483073618689925155e-01,-1.131405108525160630e+00,1.172625551009810613e-01,-1.201304404435204809e+00,-4.548495775350295811e-01,3.282452256433377596e-02,5.467686733727653015e-02,-4.082660374646621682e-01,7.174997663446686103e-01,7.823259204624001262e-01,6.470565931393056358e-01,5.164529201597622965e-01,1.634243793462002992e-01,-9.100519123230806917e-01,7.853713046276649123e-01,8.177528038166944624e-01,8.230746537361465220e-01,8.301307792475548508e-01,-6.046820441523221429e-02,4.820077895091323845e-03,-8.052033336320936208e-01,-4.634226412542627460e-01,-9.079751582854790337e-01,-8.012564378048253610e-01,7.916942612207019669e-01,2.440358184327768437e-02,7.878320892161244648e-01,1.940679934700711984e-01,1.608590364350656610e-01,-1.071515536722566830e+00,-2.207635427746738183e-02,9.558031684281793894e-02,-1.075453812222664091e-01,7.214951731519210487e-02,8.749865906577791307e-05,-2.874452958143068337e-01,3.707893801430030556e-01,4.557557815941335605e-02,7.037820076282772508e-01,-8.360987509976766097e-01,6.728472036309706139e-01,-6.670559645008231620e-01,-3.810090645472140047e-01,-6.308305824652375993e-01,4.648005357996278231e-01,1.607468653336258102e-01,-4.572092508463746485e-01,-8.441490022457951437e-01,-1.024961056138660453e-01,-1.338230445368579213e-01,-1.184170317384305005e+00,-3.290255068355237844e-01,-9.457218005125513915e-01,9.458380209181195264e-01,-3.208275017394094930e-01,-9.290835957512832977e-02,3.237307956788227359e-01,-1.232695434641247312e+00,6.338983754321345643e-01,-5.478033541151767771e-01,6.226982911733880063e-03,1.969666019742967455e-01,-8.088817408564172862e-01,6.605394275493402523e-01,-3.235416824211947984e-01,1.931883182065009807e-01,-1.964896546159944357e-01,-8.019289521748484972e-01,9.545771567369332189e-01,8.008257590395002623e-01,-9.590215384283564681e-01,6.163510840136853242e-01,-5.496355272093913502e-01,1.218881218827016499e-01,2.409238364200105582e-03,5.857904516902380232e-01,3.008632618314432405e-01,2.960522400306318525e-01,-4.363639685150504377e-01,-1.225252096066275220e-01,8.116932029049922503e-01,9.853896434453259801e-01,7.839750919231056603e-01,-5.060989249255720690e-01,-3.925143852627594465e-01,-3.569129848061493304e-02,3.051982055378413272e-01,-6.254873196640410304e-01,7.256021186538142986e-01,-6.054880681564345224e-01,-4.917772908399855036e-01,-4.931312939383158955e-01,-2.155283042643039160e-01,-5.214900080899170787e-01,7.794651071701141909e-02,-9.464982430016914972e-01,-5.661263897278456803e-01,6.633307366787764003e-01,-7.945341719315163198e-01,4.171725693438724236e-01,-4.311108076723282889e-01,-9.646725864517706750e-01,2.326943867765552121e-01,-1.183253388647765858e+00,1.973575557474582520e-01,-9.088621671856808026e-01,-1.587712801531473872e+00,-1.246247621468303368e+00,7.659959837548091510e-01,7.103125818614592912e-01,2.133161256554162166e-01,1.268453172284247366e-01,-1.152364170158540757e+00,1.353530809127628798e-01,-5.183616189133902763e-01,-1.008707108979179923e+00,-2.752512154140099310e-01,8.828232478732532806e-01,-7.094310602528048904e-01,-4.919171517646971914e-01,9.527588417095264051e-01,-7.911442484177807488e-01,2.878185177809828854e-01,-2.279323874359564517e-01,1.459344524122619946e-01,1.788657414414135671e-01,-8.384207305365165563e-01,-4.926380193978037170e-01,8.519515305802537186e-02,-6.318894613560575024e-01,4.811312602966806296e-01,-1.085552713170596650e+00,5.028484222652139790e-01,-8.977062661830945145e-02,-1.346104659075644250e-01,-8.333898320844157492e-01,5.129532734287572254e-02,2.398908108278493545e-01,-2.018567908061397187e-01,-1.252582595494745599e+00,-1.108537325386410366e+00,-9.714877722622961009e-01,8.006129515504842864e-01,-3.232158100655303096e-02,6.245966998275389592e-01,7.722894683438297214e-01,-9.682595629471983656e-02,-1.582402110676997820e-01,-5.820887296199857008e-01,-1.890571031316676809e-01,-5.311990901943882681e-01,2.019652490108028164e-01,9.469483497546964113e-02,5.582571043503731234e-01,-3.039113693494364665e-01,7.857876892365711630e-02,7.067930366047275870e-01,2.700093894858287408e-02,-1.161655953627485971e+00,-1.244943365755646791e+00,3.949327275539921134e-01,9.082477580730131950e-02,-1.174356486562172952e+00,-2.964850753436736874e-01,-2.750458339227499494e-01,9.589171654735210160e-01,5.255609337839979300e-01,4.967050654418279643e-01,-1.037804082163695574e+00,-3.566876434411029861e-01,6.259805772008533165e-01,3.533377645940433687e-01,9.453055697242717104e-01,5.860210725967416323e-01,8.272057650040433030e-01,-1.990204909642810660e-01,7.386057068738063336e-01,6.146379109835130583e-01,7.200432877045549462e-01,7.987272480722102941e-01,5.113843276837041207e-01,9.195139220502197841e-02,3.012049043583434060e-01,-7.498610253507468348e-01,-5.450322273706263987e-01,-1.213424999874374910e+00,-7.712090349967388736e-01,1.984337997025863443e-01,2.713741196912364002e-03,-3.355811287137084320e-01,-2.981800623745390344e-01,7.873314589801595487e-01,-7.160031712091395883e-01,8.223602301579658880e-01,-4.991171249768432960e-01,-4.861311247119224910e-01,-6.586037817760349578e-01,-1.071702489324688479e-01,4.663806165637401357e-01,-3.429463459621269195e-01,-9.270147518000390052e-01,-1.781184208808794245e-01,1.349394866381887215e-01,-4.918899140552664973e-01,9.041443119554165575e-01,1.421790994737089642e-01,-6.786562453957579732e-01,1.354140970888058071e-01,4.489635043755205723e-01,6.012843266457402747e-01,-4.447518751011722005e-01,1.151552064729539776e-01,4.737340835298575192e-01,3.766718885566000541e-01,3.963893918484112100e-01,-6.695023768471949355e-01,-7.508317691887896883e-01,-1.095991014366260563e+00,8.230865410799558246e-01,9.579384969349058476e-01,-1.749750227667447589e-01,6.841370804079643930e-01,1.305793780576956775e-01,2.131823911613437705e-01,1.445872853699088079e-01,-4.257773495494677762e-01,4.785515460935556020e-01,3.274045078421332078e-01,-6.811079610577813748e-01,-9.457970530702312084e-01,4.793296510876512984e-01,3.427219720435829061e-03,-4.365214944558407084e-01,8.590147667394851805e-01,-6.875749020326415994e-01,-3.467808318280869440e-01,4.945486550022753364e-02,5.119823593565492326e-01,-4.748496133210281522e-01,-4.596670955045059626e-01,5.744647488043547190e-01,4.767284893791348122e-01,-9.887203208728986281e-01,-1.094964091640822978e+00,-8.016610285139970371e-02,1.406001383093958279e-01,-5.282396551631266535e-01,1.979444681033272480e-01,-1.078100966954197021e-01,-5.327235501388052352e-01,1.735467809387228055e-01,1.544670377324802168e-01,-9.398233699938272068e-01,-6.420436660238019178e-01,2.875720887508438905e-01,5.296207396364037701e-01,8.463207262803406072e-01,8.107382109759186939e-01,-8.794451762350684598e-01,-6.465683636493508857e-01,-3.187993397342306912e-01,8.938506724538642549e-04,-9.465639177762592560e-01,-7.158002823783617963e-01,4.377229790004247278e-01,-9.589607441440466395e-01,-6.889280126892589617e-01,1.279416965834825337e-01,-8.364036838788321271e-01,5.407511263042978911e-01,-5.231346764206835642e-01,4.942253577313300283e-01,-6.016741572855955900e-01,-8.542345508169073565e-01,-9.014564987190397671e-01,7.742076349729538620e-01,-4.122275698680144540e-01,-5.490754959130871304e-01,-3.303030661274637403e-01,1.034678831909153773e+00,-4.786571649387255656e-01,-3.232811669680047961e-01,-1.524830552044478260e-01,-4.242033968696740653e-01,-1.072272799601272864e+00,6.736537071162396195e-01,1.575777370398828980e-01,4.034263656222270011e-01,-1.086872709435692252e-01,-1.437550059808850311e-01,-2.720777149876463241e-02,-5.370625692178889743e-01,-1.349758338603941066e-01,-9.321788427587542891e-01,7.161131515889005428e-01,-7.510881625048265731e-01,-9.956502853349629145e-01,6.763053597188439792e-01,2.783040882542852645e-01,-7.356247147743616606e-03,9.558937468444534957e-01,-5.108078946496943384e-01,5.900501478929804922e-01,-6.114277909312116899e-01,7.576704975606403103e-01,-3.644449769397901662e-01,1.077381925453193334e+00,1.016748214968011599e+00,-4.322003421121742850e-01,-5.322937543752953582e-01,-1.041351973215419280e+00,3.396799900657431759e-01,7.738295473911921407e-01,-3.804855450462852895e-01,-8.788256176908122441e-01,-1.051438341440482510e-01,-4.346352930824005090e-01,7.168101135211981667e-01,-1.794554917192172638e-01,-6.172090716780074260e-01,6.513838901238244716e-02,-9.517408793494845920e-01,-7.435892361623080982e-01,6.951277320479287702e-01,-8.314221073175194210e-01,1.704086336752249188e-03,1.272293166308206651e-02,-2.033370651649088201e-01,8.075487044342056775e-01,-4.273062198696735980e-01,-7.547855963225237608e-02,-6.917742017069791194e-01,-2.844164427640611392e-01,-2.055383843186125437e-01,-2.498236983324953753e-01,6.340341490323736506e-01,9.445159475934672422e-01,-8.413820858353168730e-02,2.173356927735062005e-01,-6.124730005497024399e-01,-6.273133498332553737e-01,-6.964528513028770407e-01,5.432292054474436860e-01,-5.383671533582702340e-01,7.302034901831003233e-02,-6.126220005088163223e-01,-3.686436166549489357e-02,-5.008466647737481736e-01,6.652298900160000805e-01,1.821263418309797544e-01,5.964793762091552543e-03,-8.494790301191449400e-01,-8.262920748947928384e-01,-9.900508870124737903e-01,4.327585840852180565e-01,3.992207741464507409e-01,-4.295627191284594470e-01,-3.727729406318364136e-01,1.617662401456185506e-01,-8.350382690870639113e-01,-1.217684039789541872e+00,1.855612758057714751e-02,-8.046543619432318106e-01,3.373843251771815321e-01,3.926345042590267398e-01,6.320681026936399993e-01,4.707276784731410646e-01,6.467676678564918680e-01,8.930543781040443108e-01,-4.612165278204371499e-01,-5.764729823562761979e-01,8.838830432452678965e-01,-4.171237350813686295e-01,-1.426701989328825193e-01,-4.050532279855734163e-01,7.087935132833855789e-01,8.713567280084550948e-01,-2.208575101385441553e-01,7.616420986681349259e-01,-9.447420437398527937e-02,4.752457868868840696e-01,9.171601573563233911e-01,9.105108093520292156e-01,8.415556483878746663e-01,3.584226257396461723e-01,-6.660855121108277821e-01,-9.440585258031349847e-01,5.457504107466472076e-01,-8.422847967217628184e-01,-4.436179356414725050e-01,1.115006472719933944e-01,-9.266910524183515907e-01,-3.344492266218652698e-01,3.600960246302039591e-01,6.112399602249863895e-01,-4.818617720540780969e-01,1.827600710210109114e-01,-9.539696348290825911e-01,6.267822949162468182e-01,9.896503752389275155e-01,5.722442723260388053e-01,-4.288297182035445410e-01,-9.554974079500213602e-01,1.882998830919579980e-02,-6.233005693542743586e-01,2.902775496613456685e-01,5.621619253779979175e-01,-2.951273223458934503e-01,8.244129369125642315e-01,-5.077214379591612481e-01,-2.241302073920889426e-01,-1.013429882246359159e-01,-9.579702450939711067e-01,2.746108800079464785e-01,1.884655201480240072e-01,-9.010447313839027306e-01,6.319313006554529988e-01,-8.567774992507373177e-01,5.101179088575811260e-01,8.392060080626754237e-01,-2.297533259516022497e-01,-3.882061384448221714e-02,2.392307398296706581e-03,9.837823299952862532e-01,-3.450150169127053634e-01,-8.891146718886303590e-01,-8.644380917599646663e-01,1.422879648384156592e-01,-2.644214126408204746e-01,3.640804353497508750e-01,-2.539487117567367225e-01,2.646401093599544119e-01,2.636213892405125936e-01,-2.035424680703858957e-01,2.524977721388630414e-01,9.373960950610340515e-01,1.358437252404160189e-01,4.900702323948837313e-01,-2.981319216785493498e-01,6.006289463841173459e-01,-6.405063088298168505e-01,2.111635777331847541e-01,3.845911824599065887e-01,-5.825647168317147351e-01,2.713909947476229600e-01,-5.039738187805808955e-01,9.640519879432353223e-01,4.174485295166046050e-01,9.607349703813352626e-01,-1.059096595588217421e-01,3.891718018643163246e-01,7.029681572523575062e-01,-3.106019941774562643e-01,2.241161239318447684e-01,-3.457292348519815928e-01,1.826636232476130939e-01,1.207245481523824271e-01,2.365593121493458906e-01,2.936609770023348442e-01
6.330364622789597107e-01,7.521125397096763976e-01,-8.783164995043246659e-01,7.245926853268731538e-01,5.203974499278025689e-01,3.422184646024750698e-02,6.690247589338083056e-01,6.561525753432058128e-01,3.990519932948708437e-01,3.673785558183739752e-01,1.465105880419310669e-01,3.286368235786296665e-01,8.689500852519360663e-01,-5.749671370485960331e-01,-9.416705309028408077e-01,3.383372037938450205e-01,7.004443039062708820e-01,5.417510026738552309e-01,5.018416743772411426e-01,7.363533886165505304e-01,2.724234969330345812e-01,-2.709670924869986841e-01,-2.367687096949744330e-02,-6.978417265704377481e-01,4.197789684432560176e-01,-4.008190390450869778e-01,7.927894182357533293e-01,-5.799380775720346382e-01,1.416102906713221365e-01,5.348285192871997662e-01,8.434898356222189086e-01,1.402631449499525118e-01,1.937277618823730202e-02,3.160296203563464634e-01,9.808553170410492239e-01,-2.230234011485428547e-01,5.520940168564120176e-01,9.872589290311593047e-01,-6.676607944179886456e-01,-1.227286980170049294e-02,-9.212064237432745495e-01,5.280932195085301373e-02,-4.893471251415981715e-01,-8.548477294589354458e-02,-2.824215552808154173e-01,4.513755930450343290e-01,2.787505100391967083e-01,2.025139807867942787e-01,-2.879447933755766575e-01,8.215628956265420835e-02,2.974418533702715139e-01,-4.982137289725100393e-01,-9.183844146616328974e-01,-3.950390484525185819e-01,7.888257084084675519e-01,4.068449592916540958e-01,7.327472620830126626e-01,5.008130290753778358e-01,-2.434620476787559828e-01,4.888990738038183625e-01,-6.356207399330224828e-01,3.587956028984013446e-01,-7.440236944190689039e-01,-1.964038528608565426e-01,-2.645061717712420268e-01,1.882771484298127462e-01,-1.898876153868215011e-01,-3.958462492606700800e-01,-8.517792720512894211e-02,8.401584259644375580e-03,-8.540446431008116290e-01,9.017098064894732978e-01,-6.616670817466898669e-01,-8.078180284894695973e-01,6.726950096070617446e-01,-3.096093846984993569e-01,9.150642712231348286e-01,-1.357259388236814190e-01,3.573045485611716643e-01,3.237800563425462519e-01,2.842224589084296760e-01,1.718352280397530407e-01,8.632409272338321671e-01,-6.608774495131517490e-01,4.637478825792631376e-01,-6.352856847902603743e-01,-9.390234521102687193e-01,-5.540945018745894179e-01,-9.443410962445447643e-01,-2.133591463840477098e-01,-1.027368807144550145e+00,1.180517880876610498e-01,1.233895406691503660e-01,-2.750396261658538122e-01,-4.158516127586752154e-01,8.604860132623787239e-01,1.012882105782311415e+00,8.312111354273346020e-01,4.917472381229414102e-01,-5.702766203084669305e-01,6.581856962478189743e-01,2.274367344420691883e-01,-8.554310789429101503e-01,-8.823879170514086212e-01,-1.090536909940546632e-02,1.183928525552256084e-01,8.412831716102514568e-01,-2.702686341649109814e-01,1.047897927771468257e-01,9.945808584230884097e-01,-3.162542067964906334e-01,9.273647643183284828e-01,3.498155956562334357e-01,-2.068903339333045821e-01,-9.830046269646919299e-01,-3.837068400137687019e-01,2.102415168114652733e-01,-2.883754967607035646e-02,1.031073400841416299e-01,6.558434680582203580e-01,-7.406946093654445118e-01,-4.436279804970005292e-01,-8.800111843120422828e-01,-3.294181426071263186e-01,-9.328804823766397858e-01,5.189749489718843423e-01,-9.453989967350651114e-01,-6.237659098042483974e-01,-1.081661589876632634e+00,-8.873216806703845827e-02,-8.467307174182134855e-01,-6.237535547060958641e-02,8.515041559229363788e-01,8.840479546699775426e-01,-6.414921368102607380e-01,5.501004234311937524e-02,-5.916076185405476640e-01,-9.558098615094776096e-02,-1.532592957114224386e-01,-1.656068116291795622e-01,7.008398487367288876e-01,-3.851441184934072393e-01,2.976937225443447299e-01,-3.467591629063780378e-01,-8.749265968848162281e-03,-4.987053714789758119e-01,6.621240889288607656e-01,-1.014440630089180173e+00,6.163818574259889438e-01,8.007296277946508445e-01,-5.806075150153724440e-01,-3.851746796218357138e-01,-9.514850365186244829e-01,2.420161713123236413e-01,-1.330663377143929405e-01,5.506923423011924612e-01,-1.205327240666219796e-01,-5.102522738607236930e-01,-6.565153579270062156e-01,-6.549654633283011895e-01,-4.925293123493386660e-01,-5.504244429893252466e-01,5.731941790503827239e-01,-9.968880446610443036e-01,-2.449921313734487738e-01,3.227113644488645017e-01,1.503397890318246555e-01,-6.678681926754491682e-01,1.570056989384946977e-01,4.261514411525426649e-01,1.520859880673377518e-01,7.831649886567519925e-01,-5.760646590731076655e-01,8.000661721824334771e-01,-1.027650583957075703e-01,-1.049417060141366320e-01,-4.590033581856207134e-01,-1.136433446403905222e-02,-5.647982664607111847e-01,-7.578919877635940106e-01,2.239412337860670066e-01,-7.448610503115624670e-01,6.302206142289700219e-01,-2.895388654770213351e-03,7.419550566976659822e-02,5.717805739855399277e-02,-4.915633686182454554e-01,-5.750852990992603164e-01,8.420255477847196079e-01,-1.499068603364563934e-01,5.500384634808986872e-01,-8.862222557114033394e-01,3.861235483354943931e-01,-4.179785124135698693e-01,1.562043961196282749e-01,-5.108019491481676777e-01,4.326158887663951180e-01,5.022981605315770537e-01,-8.287850433715297782e-02,8.319622808216026177e-01,8.741917764579311134e-01,9.864866860861780662e-01,1.719253529618251231e-01,-4.040258489485082927e-01,2.932195027545376198e-01,-2.604842136195406610e-01,-1.866498905098694649e-01,5.884077125088533755e-01,1.354626512222416590e+00,1.486049954802493023e+00,1.874854737194163956e+00,2.304092800224649407e-01,1.406560010293109064e+00,8.405296870637576356e-01,2.617100386578843918e-01,-1.127853241963515940e-01,-9.160290378817917967e-01,-7.056787581783169339e-01,-3.111237527143989046e-01,3.729280139158243634e-01,-6.999593889289381643e-01,-4.852959334352642817e-01,-8.104075459795823111e-02,-7.260280025942464910e-01,1.596188728591256822e-01,1.299293176494406288e-01,-1.698000580032780205e-01,-5.476192480432919840e-01,4.989297573245349282e-01,-6.973144276602479819e-01,5.385587247073448935e-01,-5.300251396947373017e-01,3.044970858488066368e-01,7.476464735335718315e-01,4.436088735776688718e-01,5.780206556254688932e-01,1.671695241848959679e+00,1.966900914082282403e+00,2.308237554541682002e+00,1.980061942047195434e+00,4.659234647729339901e-02,-2.106879817676392541e-01,-1.673154501867102351e-01,-7.874019686654510908e-01,-4.117231184448209569e-01,-2.698648843445850543e-01,-8.883426092121202711e-01,1.206844170396882548e-01,-2.087386457629688830e-01,-7.959961786418592311e-01,-3.466698488500266628e-01,3.382366822274673196e-02,-3.159141203511843798e-01,-3.496044843718292827e-01,-8.573538404675958846e-01,-5.723029808572218657e-01,-2.877555099238007230e-01,2.628566975483150325e-01,2.154655305678319643e-01,-3.836122300698958931e-02,1.298046855257099619e+00,7.170035164921802207e-02,1.668256386225542842e-01,-3.089754706185737221e-01,3.319469304052345970e-01,1.318605584355785343e+00,2.087712848489329698e+00,6.064142318674636822e-01,4.341141380631102220e-01,-4.492660924275497791e-01,3.366024472628299513e-01,-6.811517316956956503e-01,6.261885194380654163e-01,-2.024181539091678139e-01,-1.230784121467300429e-01,-7.185830904545995601e-01,4.241477901912729664e-01,8.182817088065176270e-01,-9.271579456599426949e-02,-4.704897417163231288e-02,5.579559370945790242e-01,-3.840952473265552558e-01,-8.792390885804042266e-01,1.125957006531014271e+00,2.240629742100961330e-01,5.285341903961161547e-01,1.226966801606412583e+00,8.216415650771708989e-01,-3.343760308648812130e-01,-3.258818991445053825e-01,6.635952665257639493e-01,1.332619248242361332e+00,1.229861857351881138e+00,1.163216557960653347e-01,1.443458134983449659e-01,8.101629314188771858e-01,8.296570809173241523e-01,-2.726727535869025165e-01,5.257183740743156392e-02,-2.659407247193200652e-01,2.345364025068607250e-01,6.706172687517794051e-01,-5.475431238167204340e-01,6.282142204514569173e-01,4.745033902208360410e-01,3.068794827992297747e-01,-7.182518161635783605e-01,-1.403924083839719512e-02,-1.835065979219790422e-01,-7.604977692674373957e-01,-8.277418716275217747e-01,-2.164615529802097205e-01,8.631673898395263445e-01,1.034750886451826224e+00,2.529345341485552678e-01,-4.937501526332073176e-01,-5.264916782088147063e-01,3.460803723807314575e-02,8.604249525290227352e-01,-7.541920268321790077e-01,4.344713853501215306e-01,-9.021684969467661519e-01,-1.301985585997133876e+00,-1.566301996481479497e+00,-1.577271497306037107e+00,1.765654827413190853e-01,-3.567494446475680814e-01,-3.424149280447912891e-01,2.160229526935668054e-01,4.649050383604101666e-02,-4.195115802928333637e-01,1.705882371788509377e-01,4.009252465608029725e-01,-8.592468982223717688e-01,2.809424076647325519e-01,-3.737181072636169832e-01,-3.693940797295370282e-01,-9.347748339154222652e-01,7.992275586201755821e-01,-8.991176281695379968e-01,-2.672086613254497367e-01,-1.790501263580461522e-01,2.856310565689963721e-02,4.971269903378430222e-01,-1.007826283795638433e+00,-6.136212735872736967e-02,-3.427451715117665887e-01,-1.388366159813339218e+00,-6.442006562293727256e-01,-4.354480161754034073e-01,-1.536034647086942595e+00,-1.436201783499103879e+00,-1.212832646514631074e+00,-9.685267912060742113e-01,-4.680241686072191265e-01,-1.634929907346988412e-02,-2.657484540256926375e-01,1.917292277285054247e-01,-4.790468227402425727e-01,4.889011974831117824e-01,6.100662450753828459e-02,4.856769948459753738e-01,7.492830522790407954e-01,6.308094182674961470e-01,6.786631232649569245e-01,2.106758914070466504e-01,-5.590017289054579619e-01,-8.415845795131048357e-01,6.721351522606574536e-01,5.553315967795197095e-01,1.893098097930787371e-01,-3.385783780315567149e-01,4.754904303627474071e-01,-6.021143244044461357e-02,-6.259050421195484493e-01,-1.109884624857753188e+00,-6.272575728802876061e-01,-1.017188591203962877e+00,-6.658351791758053695e-01,-5.329000404852910489e-01,-7.094556297293650449e-01,5.334511618040550518e-01,-1.605548917435338507e-01,8.227787621946784924e-01,-1.604569695441252219e-01,-6.145043475935656890e-02,1.014008984743482777e+00,6.210854492300414004e-02,-3.004958909377407617e-01,2.448267473028578056e-01,-4.844838564230231071e-01,-9.879559748860862189e-01,-5.349887459894602237e-01,-3.218415230483557266e-01,6.899814249935660726e-01,-8.666141013750331412e-01,-1.198331122771507523e-01,1.866098174999819004e-01,-4.181918849715148268e-01,2.106710988036613122e-02,7.982069275621194171e-01,9.722018158482209627e-01,3.741270392817426238e-01,-1.070977943865637494e+00,-1.165899624069801410e+00,1.658159861989945416e-01,-1.655353758599630964e+00,-9.799278992116469134e-01,-2.703804217665202181e-01,9.298356005029585480e-01,-7.515867664917661450e-01,6.457974978568796764e-01,-4.025492648758725589e-01,1.349416110504366995e-01,5.975327950207153654e-02,8.557680223088347249e-02,-7.503266294823860427e-01,-1.178354556853615925e-01,5.104289824919328034e-01,5.095540595654063365e-01,7.044541317194989993e-01,-9.436867835508797042e-02,-2.086408250624341085e-02,-9.390569270812293423e-01,3.359379971129529130e-01,-8.668168577143894327e-01,-1.301697913014534039e-02,-7.921777651305911272e-01,-7.166687433148405395e-01,9.208289605760890117e-02,-3.289337475780355902e-02,5.543679451648211159e-02,-1.927407449188726363e-01,-1.843835838679529937e+00,-1.052806973412588665e+00,-5.748075423090815983e-01,1.593856967029584973e-02,-7.129540459345761194e-01,2.668873681656466768e-01,5.565312137863158704e-01,4.179026854026678117e-02,1.930473931358862028e-01,-4.885004353362054075e-01,-3.706694050837940901e-01,-1.472130296083755674e-01,7.647353763368933688e-01,-1.209411035180553290e-01,-2.086267302780025201e-01,-2.259030522603819868e-01,-7.468411567927016881e-01,-1.476721039886730313e-01,5.538214346891245227e-02,2.686597390322555401e-01,4.784246126843170188e-01,-7.743857526346304976e-01,-4.578925746154700049e-01,6.243833704857496558e-01,-4.701941640974757197e-01,1.793096564536588722e-01,-4.555274160940176453e-01,-3.930390761568913066e-02,-7.660407821701367137e-01,8.003764467776230962e-01,-4.084399502518303304e-01,-8.822301543352506492e-01,1.315906111249764143e-01,1.139230747392308007e+00,1.328615058715178820e+00,1.159597589717522137e+00,5.455331503632498968e-01,-1.752152917585559355e-01,-2.628545632333897375e-01,-7.222842968338109015e-01,4.369801292262761594e-01,-8.503818320986999968e-01,-4.877996490658253470e-01,-2.996379862832696528e-01,-4.672620657254467624e-01,3.775147142980422865e-01,-2.962126228836346464e-01,-3.939597073093955015e-01,3.483948295333698097e-01,-5.523571496811430226e-01,-9.991686700407179655e-01,1.130187426950523877e+00,-6.974864248673514622e-01,1.744404794232539413e-01,-3.618516427651738421e-01,9.573720886151056153e-02,-1.510418015132692082e-01,5.285478665405148879e-01,-4.985796705260117090e-01,4.343285080151038646e-01,-4.348951880052419616e-01,1.721532435910330949e-01,6.680804475328241399e-01,1.159391845193939868e-01,2.578063861831764725e-01,3.477866311915985831e-01,7.995373068031091934e-01,-6.074418180804538325e-01,6.486137174984135667e-02,2.603276112633617356e-01,4.589214809074206314e-01,2.146277269193878623e-01,5.414572442260601193e-02,-2.503805371616409370e-01,3.442639280124066836e-01,6.032079449420434392e-01,-5.129506329891360128e-01,-4.458233242902931090e-03,3.900693078534614444e-01,4.128440545824718644e-01,-9.614566449865922237e-01,4.968660685193149185e-02,-3.019049036850853795e-01,-3.056858705220099615e-01,-6.501549632426240066e-02,-7.229187622305476291e-01,5.674834092315211853e-01,5.910034471844426429e-01,-1.225715079947444219e-01,2.958022504621708043e-02,1.348022941117309692e+00,9.852774005155988668e-01,1.159772774328232003e+00,-2.924659543517036386e-01,1.154015805935995204e-01,-1.025071924781187249e+00,8.227457089193030981e-01,8.974138074734132609e-01,7.782820901968533489e-01,5.664264716707723135e-01,5.824806149490107110e-01,4.038162528007778751e-01,-6.389512055284614078e-01,8.922389472427432189e-01,7.646242861026852911e-01,-2.121035975930321560e-01,9.684998105936806212e-01,3.180559985478646490e-01,-5.441291797280204401e-01,-8.864443216881670029e-01,-5.908641768170099784e-01,4.562447503517353953e-01,-1.624464868894721081e-01,-4.209005526782047535e-01,6.019772002088632501e-01,3.810740378617162305e-01,-4.288194557204174084e-01,7.053969791711043325e-01,-2.622664236276469052e-01,3.309286566894135140e-01,1.330667590528047395e-01,-7.652518199923464826e-01,-6.705044867196544578e-01,-1.105877389839276859e+00,-3.191594881723898158e-01,-2.376543975496464220e-02,-4.322852515983901522e-01,8.397226317578712074e-01,2.432409733538153929e-01,-1.604104297849262006e-01,-8.963840869396412503e-02,-6.984080561652758479e-02,8.169682442254282417e-01,-2.546337168728337805e-02,9.132486853885847244e-01,-1.870050550142044743e-01,2.086838946434948494e-01,-4.318650118564592022e-01,3.301033979626711301e-01,4.032330839082247653e-01,7.052377271276107917e-01,5.776672750273696977e-01,-8.076302502484120072e-02,4.915736292746614167e-01,-3.534323541530454138e-01,-1.729046464327712862e-01,1.801759458305465800e-01,8.559278279573516723e-01,4.147124414417366345e-01,-9.310171771052829781e-01,-6.497045487996832014e-01,-4.167808904096620970e-01,7.336952693512684143e-02,7.592341614987638265e-02,-7.251807256843046945e-01,4.391259326475429603e-01,4.563415182477729148e-01,-2.855179786639517880e-01,-4.851327644443340636e-01,3.532772167291091669e-01,9.887055669586408690e-02,1.590959097081307005e-01,-4.524646389220308117e-03,-4.136470190083136461e-04,-2.146448343757079158e-01,8.889302509502065019e-01,-2.174970160651370499e-01,-5.486924267140264044e-01,3.419726702124686879e-01,9.903979013050401292e-01,-2.937127879680322962e-01,9.845753677235323797e-01,1.075388529441322572e+00,-3.811731023398298723e-01,-2.667561298061884023e-01,-3.671694390503887351e-01,-4.185271292437202084e-01,-7.198611174825048087e-01,8.962533253091675700e-01,-3.795068167565689432e-01,-9.840289998904638846e-01,9.516589869665381674e-01,7.091989986811524371e-01,6.757251371409456198e-01,-9.133226189640573089e-01,-1.043984770967347313e-02,4.725899681307464961e-01,2.241843947565892448e-01,4.325198804378989625e-01,-4.605922485993891868e-01,-2.320504883928554279e-02,-1.272590958809929063e-01,-4.742905565873621332e-01,3.331295892865311914e-01,4.584204952077174933e-01,-4.513939007552031368e-01,-3.615682231477428121e-02,-1.632048795561262533e-02,-7.782337877622388378e-01,-9.623517364813858332e-01,-3.593466900304476686e-01,-4.672958589592403345e-02,7.455514121867830302e-02,-8.437812019720729584e-01,-8.195638058986896013e-01,9.049587952146461722e-01,-1.009855917656916485e-01,-5.522177768636641337e-01,8.928951248245430294e-01,8.864650659271170463e-01,5.619991372513024608e-01,2.210687712390542181e-01,8.370747481461691120e-01,5.598290296361208007e-01,-7.994936801055906317e-01,6.231269785287458784e-01,-9.454627207657746724e-02,-6.536805590859404713e-01,6.890034830881760497e-01,2.669185565545150185e-01,-2.862719430955608102e-01,3.394792284517155756e-01,3.110719266205840272e-01,9.900130358097674055e-01,-2.322782940143980901e-01,9.067335384171577584e-01,4.415120126465885836e-02,1.001263852382376363e-01,-2.905949275358006290e-01,-8.615373335975224922e-01,-2.463608714608185868e-01,-7.668948223103924100e-01,-3.511856403942661964e-01,-8.447349720882115776e-01,6.787477081782823385e-01,-9.088535546967642376e-02,2.455325783785662908e-01,3.738221167700067626e-01,2.696800546876447768e-01,3.078041032075935490e-01,9.501662131245147691e-02,5.431196601064145479e-01,-6.174570982339542269e-01,-8.571795506436524770e-01,3.043620613883359916e-01,7.970439394856664306e-01,6.355684085895773050e-01,-7.353395722354230668e-02,3.679572105681899741e-01,-3.693138886897178730e-01,1.073065376944040361e+00,-5.524252147407174851e-01,6.836095351916039453e-01,3.796790289868018919e-01,5.383756976299696184e-01,8.054937547496592298e-01,8.662440294966680110e-01,-2.544682534948097818e-01,-6.019435439567594193e-01,-2.585773594020980282e-01,8.807863882754776164e-01,1.124617716985222421e-01,-7.904616820324439352e-01,-3.743577460762114728e-01,-4.535116771833386240e-01,-5.587122244986758579e-01,3.170409769829010127e-01,-2.576723807476213324e-01,8.885488113644184338e-01,-3.063929415662180467e-01,7.927229731497130727e-01,-7.378982342422445440e-01,-8.363186247021499042e-01,-5.800071022008920218e-01,7.967051588518008209e-01,2.429891645118762711e-01,2.145566566660733199e-01,5.603119527550300960e-01,1.168438402703973061e-01,3.840908988959980119e-01,1.128965273317177109e+00,6.071956811206620230e-01,1.185979012557385692e+00,-2.843787171590757556e-01,-3.150392130722818318e-01,3.194739197786564677e-01,-3.598857299233273466e-01,9.407417609866129959e-01,-4.145331114264395045e-01,4.681124187118716473e-01,1.833371181156180085e-01,-7.549298339109078437e-01,-1.844113773767019904e-01,-5.257774698592181384e-01,1.875133313614423258e-01,-6.566540825556690386e-01,-1.184225980266915279e-01,9.555753678888987412e-01,-1.032934073589672347e-01,-4.794246331678809203e-01,2.344387053364817564e-01,8.823106414572305933e-01,8.836568382916100139e-01,5.878520196220861083e-01,7.609451310621082043e-02,4.747010715847582718e-01,-5.652382201835651765e-01,5.680700284609151440e-01,-1.563602808115603093e-01,9.526799757318310524e-02,-9.439341894962857138e-01,-3.277939790531553266e-01,2.498443890482526242e-01,5.498370524048786789e-01,4.152912160428082755e-01,-7.374866691251525941e-01,-6.410203361549779988e-01,-8.613086826491855863e-01,-1.749871686367990564e-01,-9.351219800179411124e-01,6.793871612007852390e-01,2.338556014500108304e-01,-9.061723605589557806e-01,-4.904193783299684029e-01,6.858110908977712583e-01,-3.221605632572839273e-01,8.325273710058906929e-01,7.408087333346652370e-01,-4.431624854602118635e-01,6.754808100813405325e-01,-8.591197101842069916e-02,2.559999297601277951e-02,7.215846452399682365e-01,8.000829585964893687e-01,-9.019518865887136139e-01,8.978548739126429590e-01,3.493478167645738819e-01,1.304870533967356916e-01,8.356420522269429885e-01,-5.212246397162868528e-01,9.190246461068319883e-01,-6.058284338302846184e-01,-6.037329259716021079e-01,-1.075374478632564051e-01,8.208805174927367165e-01,-3.438293906041987591e-01,2.413449216643591966e-01,7.261525294792370300e-01,8.917156070670306800e-01,7.388806869475335048e-01,6.233317098149497859e-01
-1.871491911873350844e-01,-8.973353134187405100e-01,2.736239148130397147e-01,-9.978421822137728547e-01,-5.593658702842245756e-01,-5.371462952220085185e-02,-2.682046589915720869e-01,-9.357871091040588230e-01,-5.298797182873320466e-01,-4.892073522428657117e-01,7.676606126948304354e-01,-7.379611786520268168e-01,4.783483051927639451e-02,-9.929765915533272924e-02,2.533131468806055775e-01,-8.140014805214956795e-01,5.846247891666089824e-01,-7.550232071769760189e-01,2.608815677427434032e-02,4.728306192318323387e-01,9.918796989948799325e-01,-1.939541003765659077e-01,-7.845483390851770711e-01,-8.248397696104112775e-01,-3.885949132199546519e-01,-6.097819633889549618e-01,-4.302112694899222767e-01,-2.123022582053002427e-01,8.842267670769563548e-01,4.705694112096412418e-01,4.050387802430359674e-01,7.021951739012917137e-01,8.074066537057629223e-01,-6.645639573927377697e-01,4.084771981874728564e-01,-8.609757288049153523e-01,-6.752044912742882765e-01,1.473121270823318785e-01,-2.384622231187367714e-01,5.954580143262759861e-01,4.959596775794916645e-01,5.128386358168413039e-01,-1.274208040474227033e-01,-9.615885983335052678e-02,-9.225231632024893935e-01,2.832713829097104896e-01,-7.254027262644540119e-01,-4.749460612618272570e-01,4.005347712222939727e-02,6.902477575692367306e-01,1.086452096126340194e-01,4.154919483415639991e-01,-3.942695422884396894e-01,7.805172281251864241e-01,7.093556148138984163e-01,-2.500499566953702235e-01,-1.252853259755866144e-01,-2.550643092531141853e-01,3.845640429856711506e-02,1.456266631299520942e-01,-6.673777630556574358e-01,1.778286975423453153e-01,-5.188512855806941548e-01,5.602898965962801459e-01,5.127054317569748054e-01,8.628724285386235593e-01,4.379713543641340912e-01,6.489843042576934895e-01,-6.345051582286842518e-01,7.234382403228561964e-01,-9.186017675027805529e-01,6.475681065303132700e-01,1.270696103595753412e-01,9.782811468257665045e-04,-2.137757534705427009e-01,-3.782477556822587406e-02,-5.018683034897356565e-01,7.033998571540701628e-01,8.928609289823917772e-01,2.233829380513656648e-01,9.621127841372751899e-01,8.473894348275712307e-01,9.087939427367461853e-01,4.638181969475698718e-01,-5.607111145297380972e-01,-9.544435840167464491e-01,1.176870803177632041e-02,-9.501565822434268060e-01,3.859518152039287386e-02,-1.881308114035519161e-02,-3.699608176522272140e-01,3.927274180047206076e-01,-2.762952594010684160e-02,-7.570601185990301074e-01,1.875350751850748676e-01,-9.868052506788282940e-01,-4.749108288750645279e-01,-6.926226944715226930e-01,3.346091540746079507e-01,-5.490390264389807262e-01,-8.165367377620968981e-01,-9.010515256635071024e-01,-3.607644000984808197e-01,-3.464084664365824073e-01,-6.189077012162742530e-01,1.699445265004743688e-01,-2.399784113646703521e-01,3.925021169209418348e-01,-2.268684848946634636e-01,-9.788817911879095224e-01,8.016289238156961705e-01,-4.634166173963194524e-02,-7.234744006827205087e-01,8.575179899872342748e-01,5.249727657542251347e-01,-8.062487066742831665e-01,1.642499555770836339e-01,-4.864912272785737457e-01,1.380652427178847008e-01,6.514611478026052782e-02,9.873570290380682957e-03,-5.786493785129019907e-01,2.547426360492885955e-01,-8.758214452290153940e-01,-9.223189642286595546e-01,-3.099088207052480559e-01,2.765439211945531356e-02,-4.888899965486487309e-01,6.451214166835571584e-01,6.206161972348327449e-01,7.754735036878279697e-01,-1.501277987650993517e-01,1.797322013632880744e-01,5.944390867043918281e-01,-8.097578367387464615e-01,-8.717786482759044553e-01,3.351958571847954982e-01,-8.360775881881929994e-01,-1.129691179114526989e-01,-3.114352259302233250e-01,9.930937951291114452e-01,-6.075431570322891162e-01,-5.630703431538774950e-01,-8.226338614900958746e-01,-7.510930564701778778e-02,1.996788155437107526e-01,-6.150938202986144104e-02,1.602194508745435619e-01,-6.897094379203125847e-01,1.900392218595237104e-01,3.885294906240854274e-01,1.511150523331843132e-01,-4.682127366673483060e-01,2.395099642140805229e-01,3.292253137468427182e-01,3.867072032733114284e-01,1.934318980461156023e-01,4.116278797591655381e-01,6.436841368282498754e-01,-9.579723460634235188e-01,-5.268696927020102283e-01,8.967513962863704613e-01,5.345648061125130024e-01,-8.280891104318748308e-01,-7.988975995064102609e-01,3.586697881348958616e-01,5.019526698003080600e-01,8.339296400763400730e-01,-7.288593795120719143e-01,-9.417878630284457486e-01,1.468631374429421044e-01,-3.905318865442599652e-01,6.099510260186239430e-01,-2.434033040285649430e-01,5.955453025993302507e-01,3.746873537365789653e-01,-9.779949028918842879e-01,7.773360081936757648e-01,-9.011979863565494978e-03,-9.324001022130796734e-01,2.732687285582319769e-01,-1.605360113154038482e-01,-7.502219208533422723e-02,5.985288471471417182e-01,-6.895904201505311804e-01,6.178371368323277713e-01,-8.609875852837147736e-01,-6.069749431321753708e-01,3.626670996107684841e-01,-7.310262964006826181e-01,4.173915879598601442e-01,-7.709485073923243448e-01,1.748198735238628426e-02,-9.217922059397742895e-01,-2.115249450029707823e-01,4.297458800360888231e-01,-1.755753767444041546e-01,-3.802515915788136081e-01,6.684204174855042924e-01,-5.237458645244755934e-02,6.444954763149604027e-01,-7.287827451395012535e-01,-7.460597972857523352e-01,-7.863844680491387518e-01,3.879762131468309505e-01,3.444233520676926452e-01,3.364883993827481046e-01,-7.164853042048325849e-01,-1.901301447672258949e-01,3.171279423384528173e-01,3.755287418684686851e-01,-2.605751671218365373e-01,2.902631635858920478e-01,-9.649291337179960459e-01,-4.700648868764804034e-01,-8.511316648505072857e-01,-5.961918349669207418e-01,-2.575663700285670821e-01,-5.690244057923901089e-01,-4.571814405138811543e-01,-8.928612204303297828e-01,5.620318109036859244e-01,-6.772742226471277771e-01,-7.337912057103956887e-01,-4.127760793561181529e-01,-2.099814909146946462e-01,1.081293041929988347e-01,1.882216127659841753e-01,-1.099666309885112270e-01,4.941687087177777937e-01,-4.331875554777058213e-01,5.026439910973341529e-01,-2.077621412230258868e-01,7.872175413717955039e-02,7.134942977439227008e-01,-3.169449409833108300e-01,6.498781775638657887e-01,-5.163679090660895366e-01,-3.668924484860174862e-01,-7.141117658132267731e-01,-2.195679371114513667e-01,-4.972525598256423707e-01,3.782908690627186932e-01,-2.459714718230260888e-01,-1.200349819561592236e-02,-5.410461794164554972e-01,-3.560438252762769817e-01,-7.803783793465955965e-01,7.203041620398419331e-01,-7.639389878926003963e-01,-6.901340958228345812e-01,-1.868098506769223510e-01,-4.591837329573460469e-01,2.744358768924501923e-01,-9.579788112938857347e-01,3.748226978550963651e-01,7.404649032516880114e-01,-5.230079613096969560e-01,6.040288897853000050e-01,8.160706771242186297e-02,5.729192610909682459e-01,4.552181498452434472e-01,1.133991265198630582e-01,-1.827193842322864248e-01,-4.894834622883693642e-01,3.400821614455191294e-02,7.367729074537546774e-01,-1.148396183515168145e+00,-1.054868370524549570e-01,-7.734323904129465355e-01,-1.840649692937625648e-01,-2.389940272517722120e-01,-3.701122795353196659e-01,-4.294108115730181641e-02,8.178373390972486501e-01,-4.546361870355161705e-01,9.346337667151244366e-01,-2.842840533295187821e-01,1.138235212570356397e-02,8.372930589310174643e-01,8.651063324978185420e-01,-5.276832936468196511e-01,-4.257378810844103523e-01,-5.476849535977379446e-01,-8.853941343720483914e-01,4.684520232584605259e-01,-9.652927934689958800e-01,-6.468440232201964069e-01,-3.017073329094403511e-01,-8.781988899162694873e-01,-9.066385057030883488e-01,5.463589144306452150e-01,-6.034468087462312447e-01,6.586443663801837545e-01,-4.250880244833113442e-01,-1.745410114908463664e-02,-2.035480241854766559e-01,-9.000237487022214600e-01,6.020338643195289885e-01,6.020792731836099865e-02,9.986967671987906359e-02,-1.276700127488579473e-02,-4.169474200046817125e-01,-2.749180845389686545e-01,6.516132430846242052e-01,6.396243834888164503e-01,4.076680685924957692e-01,5.254379833527174082e-01,-6.930424081108137457e-01,2.279601692157551263e-01,-1.304851407767770866e-02,-9.674800953958730965e-01,4.813194342696079930e-01,3.798766058249984923e-01,-9.770425373296294236e-01,-7.901883443592373490e-01,-2.547901544672020457e-01,3.402383002542447854e-01,-2.031310215458201340e-01,-5.218821541155307386e-01,4.127054232288124985e-02,-9.382294730269374883e-01,-6.558207241437888912e-01,-3.740778715178593172e-01,-3.748543186262299348e-02,-1.034264420123273132e+00,-6.899868012397898376e-01,4.635743062654380520e-01,-5.173164357842547911e-01,4.587660201220171152e-01,-7.098318782443531205e-01,5.748480229868522251e-01,-6.520699885378753446e-01,-6.014889755983898745e-01,-3.612906939932412215e-03,-5.648129079423571675e-01,-6.082559326421950185e-01,8.825377426809497550e-01,-1.848045363581640732e-01,-2.757334935248806698e-02,4.422877297298009602e-01,-1.322584173555331755e-01,-7.265734704554911438e-01,-1.581293433888390776e-01,-1.207262416190022780e-01,1.593625930350114350e-01,-2.160938962749484327e-01,7.392466817492420184e-01,-1.007722128102819248e+00,-4.558884448056430561e-01,6.121384585095467346e-01,1.427487764581247265e-01,-8.208197120668349056e-01,5.877150701806528321e-01,1.334884796568349408e-01,1.302052125356316925e-01,4.268400720049989050e-01,-4.821092207188831247e-01,7.664078937284833914e-01,-4.002205689805873323e-01,-8.093974594204302875e-01,9.924810299730423280e-01,9.817323469698767680e-01,-8.282782060385203149e-01,-6.605450981143246025e-02,-2.568782765037531668e-01,2.435877162665218698e-01,-7.373844501936470675e-01,-9.975762514910060386e-01,-1.174617513062170687e-01,-4.662778414974740326e-01,-2.912792295977831292e-01,5.531569950243047096e-01,9.106782202815823235e-02,-1.057004651509412529e-01,-3.589881361417261996e-01,5.991085525433902381e-01,4.922066671729040666e-01,6.095995400393025010e-01,-1.002879932133330154e+00,7.331289882568257088e-01,-6.286153989406177978e-01,5.779394293376670655e-01,1.449690923349133687e-01,-5.337210018475502249e-01,5.076259645155202227e-01,-5.435931361691805908e-01,4.482150091946247028e-01,4.086645326130832201e-01,-5.454049997424408325e-01,-5.315435704969307951e-01,2.097143188058272489e-01,2.623917652458465088e-01,4.763305525768364301e-01,-3.646033093005742742e-01,-6.422425154903061983e-01,-6.382613596789872279e-01,-5.796288628847162672e-01,-4.967382689361446446e-01,-3.987034785897311528e-01,1.687662971126081823e-01,-1.898556530986579560e-01,-5.021793158957853498e-01,-8.480627392652843044e-01,3.930377837165542898e-01,-8.927321985562605144e-01,6.593342650764066892e-01,-6.097925632694961573e-01,-8.166227323155748063e-01,-1.425242369321375324e-01,1.549767239606978653e-01,-9.035394848147109137e-01,-2.594166688493648384e-02,-5.686186777442369111e-01,1.253460843372865806e-02,7.240790646810306708e-01,8.794255973914083535e-01,-4.682470768745435330e-01,3.601689016091518258e-01,-9.625487660753018204e-01,2.688713984806969659e-01,1.300583650392765911e-01,-2.293421524246110899e-01,9.019203904223349610e-02,2.534152130673297809e-01,-9.222320519131806948e-01,-6.704484947477497292e-02,8.399156056687639982e-01,1.494012408894951349e-01,-5.755655419588918686e-01,6.596101300407224421e-01,-6.823703191862158235e-01,-1.401169285856360969e-01,-8.828212685345314392e-02,2.900781159835643525e-02,-3.171442841871057738e-01,-8.572750800128953186e-01,-2.102426293154122383e-01,3.186477434338476078e-01,4.675769076085785625e-01,-6.144069243496602661e-01,5.773527506713436175e-01,9.074880822295555705e-01,-9.468490690626800710e-01,-1.530926618647507620e-01,5.030843775420257291e-01,6.835245789914079495e-01,-5.828677493046636737e-01,1.541558340062509913e-02,7.176200004254806863e-01,-4.907396356736157816e-01,-5.496687068291141731e-01,-6.149978629141183983e-01,7.426793925088781556e-01,-5.344058011435444122e-01,-3.377347495344354966e-01,4.948563498172846020e-01,-2.352703065703186380e-01,-2.090945622709097507e-01,-7.994117346916013167e-01,-3.397807377362911940e-01,-1.075976072865428623e+00,-3.389478019474430059e-01,5.474682494783091879e-01,1.636044044079646709e-01,-6.933147363229982263e-01,-1.648298284605866360e-01,4.704246489463473346e-02,-8.007412296807624452e-01,7.532423404146474377e-01,2.863112908586766814e-01,-6.612785596877746030e-01,-7.568308722646696074e-01,4.874824586609349253e-01,9.858994809609605836e-01,5.890905513637147983e-01,-1.067896804893084806e-01,5.862797276621343201e-01,-3.617731839146054451e-01,-6.162003768072105842e-02,4.618512886938470619e-01,-8.674635763619956697e-01,-5.753489453637096185e-01,-6.553129311268754420e-02,3.245968213260676527e-01,-9.954879443398723105e-01,5.354595078159215538e-01,-1.254716286465064334e-01,8.899266920236660328e-01,6.117840569411178153e-01,7.807316731565339119e-01,-3.335824948382138389e-01,-5.973328269554403214e-01,4.933737072593259443e-01,-1.889442834837052054e-01,-3.940056594102346321e-01,4.071095850150686646e-01,8.271383456902575704e-01,-8.235720900549973189e-01,3.448524669632017092e-01,2.258151529500345422e-01,-5.910600143786255423e-01,-4.008475424712691915e-01,4.111829356774610034e-01,3.470707921941802443e-01,4.398397051768798693e-01,2.423132878788369915e-01,-7.402115220257973228e-04,-2.970219118343792597e-01,-6.025608148867956926e-01,2.110159747715805723e-01,1.121689794438559956e-01,5.589906676122442797e-02,-8.654167227583650090e-01,5.449720866566405419e-01,-3.234202038497949738e-01,6.317390376366691651e-01,-1.042184979639486864e+00,-7.732212022195877887e-01,2.407225658721821038e-01,3.620872330264917616e-01,-3.978757251796835037e-01,6.886123894074538399e-01,-7.650465552672712777e-01,-5.549867513063392460e-02,-7.467824276118113502e-01,-6.882344347555786612e-01,-7.241199050257282610e-02,6.582263881323904275e-01,-5.219610952105955270e-01,-6.130335717139860918e-01,2.020358646504676337e-01,2.309694946058709064e-01,6.971543756842186745e-01,-7.471839292804814681e-02,-3.330067356791739652e-02,-7.994258067118560351e-01,-1.853059150825943080e-01,9.616056561594957808e-01,4.176211820021392129e-01,8.631617561176204712e-01,-5.667072572453187851e-01,-8.395526874941507955e-01,-7.376986242052004927e-01,-1.064341002058556418e-01,9.256758093436687762e-01,3.867213195083968932e-03,-8.925013628150417766e-01,6.834422810869251741e-01,-1.953451548638860114e-01,-2.523740983724326314e-01,1.311225323105953168e-02,1.914574034622837928e-01,-9.688318435084302127e-01,8.363292340019146121e-01,9.927213108164338606e-02,-9.871330019453653515e-01,-7.798826583743750929e-02,-6.931857093966620198e-01,7.472921013621112163e-01,3.696297803640691271e-01,-5.589972982996085360e-01,8.178595971387754293e-01,-4.879875286609663965e-02,-4.158814343814010162e-01,3.780204883970563756e-01,-4.344861127284673774e-01,6.080615293073960981e-01,4.119385856759625320e-01,-1.646626797969438227e-01,1.529333371722490786e-01,9.510215756963810163e-01,6.129770021272994418e-01,-6.820920956983204109e-01,2.101496961116239119e-03,-6.688797659214562596e-01,-7.358672021883286840e-01,-5.573312716538922906e-01,-2.489104568779221954e-02,-6.916831064252537686e-01,8.269396248664622195e-01,-4.834554959241288419e-01,2.412129623724509973e-04,8.757981193957110611e-01,-4.569673481643065083e-01,-6.095984303530814774e-01,-4.893826647155375964e-01,2.035066460702190660e-01,-9.750656962231984970e-02,8.323641567617134918e-01,-8.174698979303919588e-02,3.475400827313219199e-01,3.846472933100573699e-01,3.395005032723547034e-01,6.352838044314983446e-01,-4.150059746387281812e-01,6.117168109966788503e-01,-3.845377590813923996e-02,-9.050753659539846618e-02,-4.190858263221380331e-01,-6.258728264772706051e-01,1.974818568072476965e-02,-2.367341009550529285e-01,-1.563637148527934340e-01,7.279709561193596912e-01,7.198105757983591646e-01,-1.024708636334207279e+00,-3.957207928547863962e-01,-1.964746322180997151e-01,8.552379531938897328e-01,9.949988684393415994e-01,-7.360017169567338868e-01,-6.655922597522553330e-01,2.216429841010389701e-01,5.065142778654104783e-01,3.627311424191408396e-01,6.263391903129682525e-01,8.474143515254397574e-01,1.650518074825382264e-01,2.392729140633955143e-01,-9.172566327339517489e-01,8.222909576749831695e-01,-3.108408155559569397e-01,4.854156935836057563e-01,-2.973600295901165369e-01,6.107956015789678395e-01,3.761703767471946125e-01,-3.493284935988028583e-01,-5.008021403031930330e-01,-5.176991701869728679e-01,3.023306823060785131e-01,6.330829308546281897e-01,-8.381945522328474452e-01,-9.657513795498035014e-01,-1.600051962272470152e-01,1.505364067665715677e-01,-4.959958800415525948e-01,-8.597789227217600416e-01,3.482874503539254984e-01,-6.345445208859559205e-01,-5.632216078483485155e-01,-9.936517736051959648e-01,-4.065428820113839437e-01,-5.380065154263615756e-01,-2.110315100396080723e-01,4.950683486192184457e-01,6.760397583999926407e-01,4.045043747335042017e-01,-8.259055819334116810e-01,9.907640210526033053e-01,2.186343950493384036e-01,-9.624363230402163127e-01,-5.586476109153161174e-01,8.312609730124135288e-01,2.325549415069898818e-01,5.968061719441775104e-01,-4.465187357432636728e-01,4.248165438891371437e-01,9.798353497461508022e-02,5.588665133499931548e-01,-9.933144418743016235e-01,1.199952043862703294e-01,-6.301345378771540107e-01,8.602011784727471300e-01,3.936623251677265345e-01,-2.989306658319185739e-01,6.094512944537124888e-01,9.761574828521767389e-01,-6.618105054094912676e-01,1.705337608810972849e-01,-3.678596022333620041e-01,9.542749943671280377e-02,-5.413846373577735349e-01,-1.733316728534206597e-02,8.244559383363310179e-01,8.934591599017818186e-01,-6.723975693145984867e-01,-4.745831075307678226e-01,2.563078866445610005e-01,-3.420870194127673680e-01,6.372077903986755887e-01,3.307889214534794897e-01,-9.952308762136073961e-01,-6.244938621744945406e-01,2.426291285833580627e-02,3.083064975560866339e-01,-9.013555176939292979e-01,7.215096823314491870e-01,-2.172285582805743298e-01,-7.190735936120660199e-01,-8.437202745265264259e-01,2.355752626855349419e-02,-6.386779809805245289e-01,3.917904497362688643e-01,-9.683717344936895177e-01,1.695262052122173957e-01,-1.143760326797846893e-01,9.678078538161190014e-01,-5.481466481082519770e-02,6.179507125321097583e-01,-2.201395576900859741e-01,-2.564926779589160599e-01,-5.664367835859756006e-01,7.773487817107331832e-01,-5.671513953941572650e-01,3.230593656934158120e-01,3.305676594378018779e-02,5.263383020819697444e-01,-4.815628168487334770e-01,-1.390676482817066080e-02,2.294778532540906468e-01,1.392233444734889969e-01,-6.471550103477734239e-02,-9.280606175518913981e-01,5.992389772951119964e-01,7.840055184038208225e-01,1.638602827742672297e-01,8.213475030519524767e-01,-2.541652891599950892e-01,-7.419416515514501986e-01,9.408288748430748694e-01,-2.162259192294491150e-01,9.482633358221259634e-02,1.039005830882433479e-02,-3.002829418343657686e-01,4.302412671572117819e-01,7.720834362192932065e-01,-7.398518061774612686e-01,2.508435625964120508e-01,1.145115525130377954e-01,9.028990656457329678e-01,-2.214659982563327301e-01,4.485013202820313793e-01,1.377374542173707139e-01,-3.143155595988682549e-01,5.729605044538061548e-02,-7.684979641718161503e-01,5.785374544754310344e-01,-6.924905052301548736e-01,4.104378334193267697e-02,2.260976417289307927e-01,4.197495343713107396e-01,5.095078856721528826e-01,-5.496314897635520280e-01,-7.874406436906802864e-02,-7.316331652204626224e-01,6.017911446870738423e-02,-8.565244086901113718e-01,-6.500254492456192246e-02,-5.689627335914102524e-01,4.102958825243632202e-01,-4.515831282614488629e-01,-7.701028776590799207e-01,2.411804035949058900e-01,7.854346507825504808e-01,-3.250680842573017149e-01,6.478448629820594551e-01,-3.278750311213107782e-01,8.385833358225269762e-02,-2.594684048128046427e-01,-5.365072356439011259e-01,-2.471398253058612049e-01,9.878498034397362737e-01,-9.769764583085871479e-03,-1.198213296797427940e-01,-7.776287355097026843e-01,7.942530160355592006e-01,7.576660533216581506e-01,7.725078526590262173e-01,-6.054312864359174817e-01,9.481967005973868101e-01,1.278460012071448437e-01,-9.929431142562750168e-01,7.215285326196079208e-01,-3.855935836679342810e-01,-2.293201859364075723e-01,6.372667967353835561e-01,7.507556123949767901e-01,-6.080323600235140180e-01,3.346370159023934754e-01,5.672004767586826812e-01,-1.506795379660144096e-01,-6.255426142244884247e-01,9.209841591597689447e-01
1.990705691166076985e-01,-1.575454449265476509e-01,-8.876785002382339140e-01,-1.014016454928112765e-01,1.333335440473839562e-01,8.283287398563434767e-01,-7.821919346631545089e-02,1.255800547341565654e-01,-5.939083755120959651e-01,1.889348707933089511e-01,1.252245242235063838e-01,-7.058124458198009599e-01,-6.102650505037601203e-01,-4.521900417718256460e-01,-4.691518769769031927e-02,7.585547476266176758e-01,-2.817270493270116472e-01,-1.754554661696954287e-01,-5.277147191246744917e-01,-4.500839175518334123e-01,-3.397426218333281511e-01,6.475233057551919025e-01,-1.283527172273313255e-03,-9.396540379968583157e-01,2.928557227762529358e-02,-1.988669364100283943e-01,7.624053961159380499e-01,-5.094879831664897996e-01,2.832859749723413145e-01,8.686534833989356663e-01,6.669234546874371894e-01,3.746500959011409559e-01,2.781143901060292301e-01,-1.286098871293184231e-01,-8.904487818475854688e-01,4.502914255445395475e-01,-5.485810403443869276e-01,-9.570119822338349902e-01,7.918469258941386313e-01,8.416908342493581996e-01,3.152850075154163823e-01,-2.095058987008946091e-02,-1.426883029529345814e-01,3.710871095862096070e-01,-4.700222732540403348e-01,6.527204836526495635e-01,3.935188168651985174e-01,7.086558293795610641e-01,4.822195780612789084e-01,-5.538209405909249039e-01,-9.513045694341675240e-01,8.596336189665243488e-01,-6.111258538486958880e-01,-2.752215424741306649e-01,-7.244669157562304562e-01,-5.354177390996528452e-01,2.697046878516193846e-01,-3.397520226160299917e-01,9.541559933974939067e-01,3.918648748334496723e-01,7.756556979652104999e-01,-6.460314835723715010e-01,-4.318054999787245274e-01,-4.289587059149791576e-02,3.338316111490390314e-01,2.195013638220406349e-01,-8.179745804906606022e-02,-5.427636797765776899e-01,9.227620954906312623e-01,8.591389931586729256e-01,7.554893639644632009e-01,-5.711191133372593987e-01,5.433274148482090116e-01,2.558614694502266973e-01,5.087871651546898022e-01,7.406047872773459384e-02,-3.190022621103291156e-01,-1.182145003440242953e-02,-1.370351561446594424e-01,-3.930462385999771158e-01,-4.663217617094430612e-01,2.754161439515439014e-01,-2.312360722550914627e-01,-4.252181291057051116e-01,-7.430001110680051202e-01,-8.887666948619259433e-01,-9.562786470988200449e-01,2.336519817729223458e-01,-8.086250510344863418e-01,4.571402763630413313e-01,3.397745441258571142e-01,-4.630234127659347831e-01,-4.994705632547458696e-01,-3.028725746672875641e-01,6.446117242392782401e-03,5.124504380764742795e-01,-9.494047639609947131e-01,-5.362765323870422735e-02,-3.610388382128390528e-01,3.995602210460683645e-01,9.506989883936958208e-01,3.332806093763009125e-02,-1.382851043386839895e-01,6.463629937492835209e-01,-4.492200151131588992e-01,-4.293495229012385672e-01,-8.790492330937177412e-01,-5.889391360929954189e-01,-9.046927204800184752e-01,-9.096811287291550752e-01,-5.035652949537303691e-01,-2.967736991216824993e-01,7.960129524669001810e-01,1.676254961925843952e-03,-9.800161408730638790e-01,9.119047972419004333e-01,4.775334111862252762e-01,6.057601000336942931e-01,-8.993949950274418015e-01,9.133479107062778546e-01,-6.657755324576626332e-01,3.459276312079881954e-01,3.573344478562038851e-01,-8.444707189953952753e-01,2.910580091889492516e-01,-9.626446959192052066e-01,6.963784589619709253e-01,5.323200272020489621e-01,-7.442816109256401580e-01,9.645626245265820353e-01,-4.770444531524525161e-02,-2.439845720974328502e-01,-4.238436416748911362e-01,-8.597742529231194863e-01,4.358615467125889209e-01,3.349058206403603966e-01,-3.974950325275015128e-01,2.676645809391275943e-01,-6.637289030808408707e-01,6.453334890391855261e-01,-2.672919109647646785e-01,9.760027417490135804e-02,2.116673216417012948e-01,5.558608534620081976e-01,-8.043792494458628095e-01,-9.044298755637727449e-01,-6.143374066820159740e-01,3.254190449902914783e-02,-8.197659318018589714e-01,4.234541660533415741e-01,6.201577286669233136e-01,-9.025689745251911367e-01,1.231462867504932307e-01,4.249538853664377308e-02,1.631760214521609798e-01,-1.224128867131575538e+00,-1.290675104395756057e+00,1.830520179354839724e-02,-8.632241500860255989e-01,-3.031331798553940637e-01,6.619515644117789366e-01,-3.810757503028407434e-01,4.271757253386924136e-01,-9.311937377320404774e-02,8.289085104509829466e-03,-6.702227452255571372e-01,-1.149729844970847487e-01,-5.578591309332424641e-01,7.533187474594338351e-01,9.576794199956264464e-01,-1.318665753942956931e-01,9.619723103398774011e-01,3.645496980351203842e-01,1.063453190722266184e+00,3.030383671480804675e-01,7.089107643054223251e-01,8.985204421542695163e-01,-5.407358084262601228e-01,2.901663967076389405e-01,1.454600695200650162e-01,-1.197369768974969162e+00,1.825571696229730534e-01,-1.404497369886066327e-01,1.101530952895985349e+00,1.148192095959513076e-01,-3.031563872821400052e-01,-3.062013786993538766e-01,3.354546332267261399e-01,4.310259505023578686e-01,7.034860146096244549e-01,3.487894967231360277e-01,-5.928021414475145301e-01,3.932354856052091563e-01,-5.781089900447139440e-01,-8.958160157404142510e-01,-5.247351127705807139e-01,-1.809843606255943094e-01,-5.155667888729580373e-01,-5.677148608931321672e-01,-6.199103079184031806e-01,5.401353242715074554e-01,-6.875527731081589877e-01,8.684360343935647597e-01,-4.539630499775472727e-01,-8.392505526045598852e-02,3.257904760754298246e-01,-4.690698617095757084e-01,4.050461477287909395e-01,1.057008801915137797e+00,6.066142680821583894e-02,1.448360300375578849e-02,4.526551127971676358e-01,1.094045000163423875e+00,3.814307615122018436e-01,1.504095597055931988e+00,-9.991364284301995635e-02,8.740384307338883163e-01,8.453964300094433948e-02,-8.097663532131497144e-01,4.493225145755780914e-01,-7.436323272417091901e-02,6.181412406943773696e-01,9.062739433424834568e-01,-1.896379828776806609e-01,-2.252970187420999526e-01,4.003480766675263092e-01,-9.090406992202641756e-02,2.606513958289911614e-01,-5.440373883450136949e-01,1.535053466535268862e-01,-6.272587104017800508e-01,5.378521864086718285e-01,-5.290250912469662836e-01,1.185732493181623770e+00,7.638364305635467200e-02,-3.579974720594488180e-01,1.237798345330079375e+00,2.887795143541415643e-01,1.343311753922506124e+00,-6.363301064271068563e-01,3.721940425773187511e-01,3.246245120797482953e-01,7.026864634927815212e-01,1.111961356871440099e-01,7.401405400314570171e-01,-1.515843273098838317e-01,-4.522495965129942341e-01,-8.101285559031501382e-01,4.174290739501588798e-01,6.979749395809686785e-01,-6.197784383068332126e-01,-2.844773140436122616e-01,-2.526414236167232041e-01,-9.162064293823534156e-01,7.907964140071672976e-02,7.441654529967064446e-01,-4.785850544641193638e-01,8.051936915457911237e-01,-7.457929811731128789e-01,3.282205698866746957e-01,9.742879860336650655e-01,4.209205387072323945e-01,1.412348124601528754e-01,2.413874250708167579e-01,3.466521864811066833e-01,-6.155373032173362402e-01,8.703281013896045915e-01,-3.003941760245990023e-01,5.519372335378959216e-01,-2.151430348212184374e-01,-2.278742840080417997e-01,2.968202915757365834e-01,-8.604479436928413882e-01,3.144050198049579969e-01,-1.190515565290329453e-01,3.951799010685152491e-01,9.402889370444675876e-01,-4.749489853342182544e-01,-7.186877369045944208e-01,-9.072071436957869217e-01,3.591465311451868536e-01,7.931284395008754151e-01,-8.757017921527343596e-01,8.668134221677237239e-01,-3.918029607240584578e-01,-4.849337087075148989e-01,3.712478608632855948e-01,6.701805127768240000e-01,6.184753842683026193e-01,9.838220803214229315e-01,6.972238785519067061e-01,-2.872037165246193458e-01,2.926626212635510815e-01,-8.663530003395035761e-01,3.911793315134144966e-01,4.251368708643753491e-01,3.633455370583337785e-01,1.015017104335033116e+00,-1.594394757615485436e-01,4.125080951682399966e-02,-3.712215409895537332e-01,-6.072364986896586769e-01,8.948215634237601801e-01,-9.758610749287807140e-01,-2.825608621123972264e-01,6.975524929996252954e-01,-2.905362084901397801e-01,-3.945477765439565077e-01,6.205959735566977109e-01,-4.614150373571802022e-01,-8.452919265964453643e-02,6.139653697649696262e-01,1.209923951730058206e-01,1.006597713607129130e+00,-6.896356499361975256e-01,-9.155971995210908654e-01,-7.413402709414368408e-01,-9.546520340524430326e-01,-5.010826843432955036e-01,-1.267257022670366773e+00,-1.895982353838646384e-01,4.550499655132360377e-02,5.244102163257196025e-01,3.988415767129113720e-01,8.653939504690114637e-01,-5.790846071797830508e-01,7.149486945827162598e-01,-1.359688390436578631e+00,-1.451788322962166866e+00,1.508178800382314333e-01,-5.696340860958418739e-01,6.872701392261063580e-01,7.824600211473419220e-01,1.226694301888464622e-01,-2.488027260243677319e-01,2.506774015873218797e-01,-7.079721280241455528e-01,2.542017354847599386e-01,8.927692432132595668e-01,5.547677578690866085e-01,4.251015625041346113e-01,-4.242488398064387933e-01,1.012126227082936092e+00,2.367456848601011965e-01,3.857304904940037082e-01,2.583637103931437640e-01,2.492764693035703638e-01,-8.281985213904379250e-01,5.065845405802212875e-01,-1.418943101664955214e-02,9.131281255596198632e-01,5.530591316960954407e-01,8.491787584453126536e-01,2.096020529337328520e-01,-5.990152040114508081e-01,3.243563028288967143e-01,-1.014265210046906951e+00,2.925971546953526348e-01,-6.588732369733208971e-01,-3.209521063371628680e-01,-5.145194871750341514e-01,-8.130616223480553462e-01,-6.852505900472966038e-01,-7.661628406543303793e-01,8.804692893505798867e-01,7.509750965119990074e-01,2.813042888473886172e-01,-3.467498960308152967e-01,4.830182822693936950e-01,-4.063994388300362082e-01,1.085234116640997337e+00,-1.055283397357331676e+00,-7.453279788496108837e-01,-2.152542624968455109e-02,-1.228620792145102225e+00,-1.242764158434962019e+00,3.759849301759846107e-01,-6.123755818572611531e-01,-3.025149328308251451e-01,4.702432990590820205e-01,3.428657537879156170e-01,1.030490597029403155e+00,9.010458412027139152e-01,1.782626860359975141e-01,2.534892311011071805e-02,-7.801660826211807009e-01,-1.187310573975074668e+00,1.983985595641523381e-01,1.835335123042770855e-02,8.831454570814410987e-01,-6.142256347800752886e-02,-1.872770218326801073e-01,-4.300637254161316925e-01,1.260205802765573257e-01,4.302800965234137576e-01,-3.476156118550792207e-01,1.011832244827700844e+00,-9.423221433394514401e-02,1.294550168874825102e-01,-8.010269387309841838e-01,-9.241304209801848302e-01,-1.610773875107028630e+00,-4.658224204923008260e-01,-7.570086456224520699e-01,-7.742243953723643157e-01,-1.161291936291055871e+00,-1.226133130760314494e+00,-5.501699720406684202e-01,4.906274346854587742e-01,7.587637407315940274e-01,-3.339602760180312435e-01,8.899024593882257084e-02,-6.523983678819457455e-02,7.345993634819140139e-01,7.822976651679967863e-02,-6.837520933236307386e-01,-6.654709815352670699e-01,-5.299861285044537018e-01,-2.971292311795052654e-02,5.652389425421633362e-02,-3.630061985451273343e-01,-5.473113900076840288e-01,-1.900121980453604309e-01,-7.099687610921140424e-01,2.797285497280692090e-01,-2.874844015298704814e-01,-1.188756878196032707e+00,-7.117303186924093250e-01,-1.022281170509065085e+00,-9.178453087019030621e-01,-1.523482505135638654e+00,-1.073736496081693303e+00,-1.727895577226121970e+00,8.367876269440946424e-02,-1.489272669636528157e+00,-6.321558763757015864e-01,-8.528918992619183292e-01,-4.934547356879735447e-01,1.221320222742941830e+00,-1.681690216397006277e-01,9.552392470844504047e-01,-6.377261953855841714e-01,-2.431082275347373478e-01,4.238709201398404014e-01,1.210130684762330058e-02,-2.750969999656270870e-01,-9.602252629789407301e-01,6.666502289250547664e-01,2.053937250874150466e-01,1.326957580716130736e-01,-5.980825344490067197e-01,1.385306155118632143e-01,6.087283228338514762e-01,7.396929600516502501e-02,-4.861616412180014835e-01,-1.263881703260462674e-01,-1.299028225673773684e-01,1.488007442562779004e-01,-1.630362868886888750e+00,-1.276713654165363643e+00,-4.000397807250343218e-01,-1.026807334126138116e+00,-1.192798406644358877e+00,-6.331276481044326720e-01,-5.275010271704788645e-01,-3.738486420318960501e-01,7.279456979491741864e-01,3.056096836138274750e-02,1.008622595676751610e+00,2.877439172515436350e-01,-5.857259753842858352e-01,-3.513995497763748310e-01,-7.237018790219507114e-02,1.620934240676867033e-01,-1.802938252286409582e-01,-5.122590007709196813e-01,-6.606289952692052658e-01,4.023243795666284206e-01,-6.980060889165039251e-02,-7.709827063287953697e-02,3.326568779127946907e-01,-6.808416786177862168e-01,1.637499258296347057e-02,-3.823688236350414327e-01,-8.324075964148108797e-01,1.246252956603662587e-01,-7.858470452080855706e-01,-5.123329418577142746e-01,-2.978883911262977247e-01,-3.797701307621911826e-01,-9.848388422105048834e-01,-1.323395697976189389e+00,6.495469052627083073e-01,1.033264998564638493e+00,6.111834036497043599e-01,3.241377120923892297e-01,-4.743471702925849409e-01,7.033010154323676710e-01,-5.377888524369747181e-01,-1.943342072068929005e-01,3.023350647278337799e-01,-1.442601935548427639e-01,-5.752517335704570023e-01,-9.074981512092841207e-01,-1.245703795558741472e-01,-4.992682276053381774e-01,-3.877618434415813220e-01,-6.262984310173311808e-01,7.927785716579738295e-01,2.399751399992209322e-01,-1.468053943251493576e-01,-1.330837340763341148e+00,2.435692661763738387e-01,-7.411699919636182132e-01,-1.790921575945060074e+00,-8.176843955449095702e-01,-3.705510928525228009e-01,-1.417862142665068159e+00,-1.110120946085147997e+00,5.242297932123323179e-01,-8.665456459525144872e-01,-5.399699062893299484e-01,-4.777864201595513616e-01,-4.477724484634486579e-01,-5.785872642885691031e-01,7.344984229539882614e-01,-6.393750384194896164e-01,2.164120931325017819e-03,1.842146453946482687e-01,7.178332963037026282e-01,3.516933978923730830e-01,7.577260898335624884e-01,5.768763963196319455e-01,4.913112759015403341e-02,-1.804612709843426976e-01,-8.039595601302943484e-01,1.341574076413161398e+00,-1.252363118427425592e-01,2.578279232112968833e-01,7.212607174341673089e-01,-1.282266170432957209e+00,-8.391861489255807438e-01,-1.745165772480946176e+00,-1.602580663096116576e+00,-1.112518916794590362e+00,-1.416034596546542401e+00,6.572633274999056807e-02,5.666998242095929589e-02,1.095941444386064889e+00,7.955104031061627223e-01,2.936707550776669617e-02,3.298814886575924255e-01,-1.079088920011103570e+00,6.759141166661216671e-01,-1.037082011760309452e+00,2.768041899244143289e-02,5.773845233894909779e-01,-1.202399394873687466e-01,3.955832178184454651e-01,-1.021001210037799645e-01,-2.041904053424026255e-01,-4.058888575215433697e-02,4.239233333600229692e-01,1.105340591774877090e-01,1.010494500515638494e+00,1.116446935497668491e+00,-3.390904073050704515e-01,-2.020686290576588495e-01,-2.828975650249933027e-01,-7.507330002869589958e-01,-1.149764527647728629e+00,-1.148253967496329020e+00,-2.612846688052777866e-01,1.579291751169531986e-03,-2.564950464024414595e-02,-8.633826508884786533e-01,-1.965595754858659727e-01,6.049714757811897048e-01,-1.282643537503019404e+00,5.652272322464186871e-01,8.895919265594981473e-02,-2.201266785251602964e-01,-1.802024747009686734e-01,-9.639280060027713981e-01,-7.605988920100077433e-01,8.190186712159142068e-01,-5.707688748827163261e-01,4.785432002418063546e-01,4.894841248399595113e-01,-9.899779815657593351e-01,8.350820642967546892e-01,9.051049679885529997e-01,8.712398953451804262e-01,9.385250819990889615e-02,-3.091927643714197926e-01,-9.403431265394042171e-01,-3.411181895413277765e-01,4.369694535273142000e-01,-2.130797002437980203e-01,-1.307936625222443361e+00,1.281601016065763154e-01,1.526587675540307942e-01,1.483288849257190511e-01,-9.409441814221595202e-01,-5.279529318990808795e-01,-3.712791815636568571e-01,3.802050228524513353e-01,-1.126672188201073288e+00,-8.879997076745034246e-01,5.428621480044920622e-02,-8.545817983574710563e-01,-5.919905230883969471e-01,-7.126533019687231185e-02,-1.343343452063005539e-01,-4.033252190698114470e-01,1.970322688656931387e-01,1.773287659898117319e-01,-9.608176635308771640e-01,4.814490859942548440e-01,-4.864811800290878563e-01,8.877747149435796792e-02,-3.893961080626801574e-01,-1.334886094484938890e-01,6.937826101576949345e-01,9.179756115203879796e-02,-9.167744246739472080e-01,-8.799927255737553800e-02,4.137939453671893308e-01,8.195066832529247502e-01,-8.109056338942582931e-01,8.598545110120594526e-01,1.763769438192929750e-01,-3.948226129349963892e-02,-1.908924383180775064e-01,9.181675423404153658e-02,-5.593665547344404132e-01,-4.084392058576967188e-01,9.134779654369137858e-02,-3.094634465854211314e-01,2.888684548812736619e-01,1.393751510782432479e-01,7.637657910119706461e-02,1.021493290192717757e-01,1.043585690224126949e-01,8.897338156274565701e-01,4.991511281747618156e-02,-5.296498259570874279e-01,9.353101462307890079e-01,8.916937853035893369e-01,5.543167436976174089e-01,-4.352336910459136399e-01,1.570638853964812509e-01,-3.172559461229522704e-01,-5.946515889423743539e-01,-1.718146168965923801e-02,5.717881121280261603e-01,5.437684590126288242e-01,-7.321564299916080154e-01,-8.294728579508384714e-01,5.768199254995388658e-01,-2.631556375243886831e-02,4.632986939073976962e-03,-4.527891851233215026e-01,-3.998859919818634756e-01,-2.363078191613818962e-02,-7.961594797990030337e-01,-1.028929288123239472e+00,6.343327510142353631e-01,7.755649117990494334e-02,-8.113133506495459057e-01,7.797970882854982078e-01,-3.661761226774440381e-02,-8.765381695131888584e-01,-3.096549671863286779e-01,-1.103604573726230803e-02,4.149345380621041746e-01,-1.662672221392976490e-01,8.757523652634819911e-01,-3.940081281843524352e-01,-6.889281167731754474e-01,-3.867445006422735032e-01,-1.564280751711849271e-01,5.345793206339896075e-01,8.301684107537609103e-01,1.069624944685139134e+00,-1.441156601924986624e-01,1.120981310044181445e+00,2.866794323583600201e-01,6.232941510095717508e-01,-1.331853620771382141e-01,8.548409900827693697e-01,1.147850426729251083e+00,-2.096618421949805189e-01,-1.676809999215410629e-01,-3.207303879341387720e-01,-6.356526561991543423e-01,-9.300704059943646351e-01,1.713100428733780045e-01,-9.472810219108500629e-01,2.033281662024744030e-02,8.949498262690624983e-02,-3.837878027276000470e-01,-2.574173878964560735e-01,9.162393967669862915e-01,9.196458426776766837e-01,-9.305586072469447245e-01,6.184978407321745086e-01,-3.505228213621060518e-01,-8.294639715257723367e-01,1.228845314223367513e+00,1.914172697225040992e-02,-3.021452068232633459e-01,4.558721566107806766e-01,-9.280890321240896357e-02,2.652587328295782920e-01,5.887762726918813749e-01,-2.396067819621914841e-01,-5.688715764610280390e-01,7.645093863850322968e-01,7.068158763350931295e-01,-3.028728531235851118e-02,2.388606294346208234e-02,8.528703743130466863e-01,-3.819943537885271412e-01,3.569608435995112045e-02,3.993128606946765302e-01,-6.241832532938214051e-01,-3.983321307474096962e-02,-5.441054637830116114e-01,7.824258854624808190e-01,-4.814918509782080136e-01,-8.298691928881010149e-01,6.025689159362386249e-01,8.759579942756853810e-02,-7.440001868385616168e-01,-8.057422409145868769e-02,-6.566589439721417509e-01,3.218644707204174615e-01,2.772311783397798379e-01,5.566919630324732582e-01,2.290965858020405366e-01,9.280034882311595235e-01,9.276534437768365615e-01,-4.704045332663264189e-01,1.024963720546554047e+00,-8.629605893910456960e-01,2.541829992861804333e-01,1.051298466479441807e+00,-2.644240280790284281e-01,9.517091075758046248e-01,-3.849033470182689487e-01,-6.736375167607943082e-01,5.481441335124964676e-01,-5.557041621989231572e-01,-7.700331578627772622e-02,-4.835350458388265604e-01,-7.830198681668452121e-01,6.335736745960884875e-01,6.801200374159732664e-01,-2.050488996663257790e-01,2.752052348145709870e-01,-7.536441225518948350e-01,1.264600056133229067e-01,1.314655721761180951e-01,8.812121042064300358e-01,3.113747618266365369e-01,-4.025319728472261382e-01,-6.496316831592447993e-01,-2.669145370978781018e-01,-4.261449066526182272e-02,-8.659503174635414524e-01,-6.515724972928287340e-01,8.765167295465362551e-01,-5.409122992901380655e-01,2.350496353956737020e-02,-6.479843344591169618e-01,-9.142737082263549531e-02,7.978585493403994588e-01,-9.495536050883798262e-01,-5.246421715742453085e-01,2.458273111658537680e-02,-4.574613196753101185e-01,5.762678608901565802e-01,-4.871803211003689071e-01
